digraph Tree {
node [shape=box, style="filled", color="black", fontname="helvetica"] ;
edge [fontname="helvetica"] ;
0 [label="pixel_4_4 <= 0.5\ngini = 0.9\nsamples = 1257\nvalue = [125, 132, 130, 129, 121, 116, 128, 124, 131, 121]\nclass = 1", fillcolor="#ffffff"] ;
1 [label="pixel_5_2 <= 5.0\ngini = 0.554\nsamples = 195\nvalue = [123, 0, 3, 1, 6, 16, 4, 0, 3, 39]\nclass = 0", fillcolor="#f1bb94"] ;
0 -> 1 [labeldistance=2.5, labelangle=45, headlabel="True"] ;
2 [label="pixel_2_5 <= 8.0\ngini = 0.398\nsamples = 51\nvalue = [0, 0, 1, 1, 0, 11, 0, 0, 0, 38]\nclass = 9", fillcolor="#ed798e"] ;
1 -> 2 ;
3 [label="pixel_7_6 <= 1.5\ngini = 0.292\nsamples = 12\nvalue = [0, 0, 1, 0, 0, 10, 0, 0, 0, 1]\nclass = 5", fillcolor="#5dafea"] ;
2 -> 3 ;
4 [label="gini = 0.0\nsamples = 10\nvalue = [0, 0, 0, 0, 0, 10, 0, 0, 0, 0]\nclass = 5", fillcolor="#399de5"] ;
3 -> 4 ;
5 [label="pixel_4_6 <= 1.5\ngini = 0.5\nsamples = 2\nvalue = [0, 0, 1, 0, 0, 0, 0, 0, 0, 1]\nclass = 2", fillcolor="#ffffff"] ;
3 -> 5 ;
6 [label="gini = 0.0\nsamples = 1\nvalue = [0, 0, 1, 0, 0, 0, 0, 0, 0, 0]\nclass = 2", fillcolor="#7be539"] ;
5 -> 6 ;
7 [label="gini = 0.0\nsamples = 1\nvalue = [0, 0, 0, 0, 0, 0, 0, 0, 0, 1]\nclass = 9", fillcolor="#e53958"] ;
5 -> 7 ;
8 [label="pixel_1_1 <= 10.5\ngini = 0.099\nsamples = 39\nvalue = [0, 0, 0, 1, 0, 1, 0, 0, 0, 37]\nclass = 9", fillcolor="#e64361"] ;
2 -> 8 ;
9 [label="pixel_1_5 <= 2.0\ngini = 0.051\nsamples = 38\nvalue = [0, 0, 0, 0, 0, 1, 0, 0, 0, 37]\nclass = 9", fillcolor="#e63e5d"] ;
8 -> 9 ;
10 [label="gini = 0.0\nsamples = 1\nvalue = [0, 0, 0, 0, 0, 1, 0, 0, 0, 0]\nclass = 5", fillcolor="#399de5"] ;
9 -> 10 ;
11 [label="gini = 0.0\nsamples = 37\nvalue = [0, 0, 0, 0, 0, 0, 0, 0, 0, 37]\nclass = 9", fillcolor="#e53958"] ;
9 -> 11 ;
12 [label="gini = 0.0\nsamples = 1\nvalue = [0, 0, 0, 1, 0, 0, 0, 0, 0, 0]\nclass = 3", fillcolor="#39e55e"] ;
8 -> 12 ;
13 [label="pixel_2_5 <= 1.0\ngini = 0.266\nsamples = 144\nvalue = [123, 0, 2, 0, 6, 5, 4, 0, 3, 1]\nclass = 0", fillcolor="#e99457"] ;
1 -> 13 ;
14 [label="pixel_3_5 <= 1.0\ngini = 0.735\nsamples = 14\nvalue = [1, 0, 1, 0, 5, 4, 3, 0, 0, 0]\nclass = 4", fillcolor="#ebfcf9"] ;
13 -> 14 ;
15 [label="pixel_6_5 <= 2.0\ngini = 0.667\nsamples = 9\nvalue = [1, 0, 1, 0, 0, 4, 3, 0, 0, 0]\nclass = 5", fillcolor="#deeffb"] ;
14 -> 15 ;
16 [label="gini = 0.0\nsamples = 4\nvalue = [0, 0, 0, 0, 0, 4, 0, 0, 0, 0]\nclass = 5", fillcolor="#399de5"] ;
15 -> 16 ;
17 [label="pixel_5_1 <= 2.5\ngini = 0.56\nsamples = 5\nvalue = [1, 0, 1, 0, 0, 0, 3, 0, 0, 0]\nclass = 6", fillcolor="#9e9cf2"] ;
15 -> 17 ;
18 [label="gini = 0.0\nsamples = 3\nvalue = [0, 0, 0, 0, 0, 0, 3, 0, 0, 0]\nclass = 6", fillcolor="#3c39e5"] ;
17 -> 18 ;
19 [label="pixel_6_2 <= 15.5\ngini = 0.5\nsamples = 2\nvalue = [1, 0, 1, 0, 0, 0, 0, 0, 0, 0]\nclass = 0", fillcolor="#ffffff"] ;
17 -> 19 ;
20 [label="gini = 0.0\nsamples = 1\nvalue = [1, 0, 0, 0, 0, 0, 0, 0, 0, 0]\nclass = 0", fillcolor="#e58139"] ;
19 -> 20 ;
21 [label="gini = 0.0\nsamples = 1\nvalue = [0, 0, 1, 0, 0, 0, 0, 0, 0, 0]\nclass = 2", fillcolor="#7be539"] ;
19 -> 21 ;
22 [label="gini = 0.0\nsamples = 5\nvalue = [0, 0, 0, 0, 5, 0, 0, 0, 0, 0]\nclass = 4", fillcolor="#39e5c5"] ;
14 -> 22 ;
23 [label="pixel_3_4 <= 4.5\ngini = 0.118\nsamples = 130\nvalue = [122, 0, 1, 0, 1, 1, 1, 0, 3, 1]\nclass = 0", fillcolor="#e78945"] ;
13 -> 23 ;
24 [label="pixel_5_4 <= 9.5\ngini = 0.032\nsamples = 124\nvalue = [122, 0, 1, 0, 1, 0, 0, 0, 0, 0]\nclass = 0", fillcolor="#e5833c"] ;
23 -> 24 ;
25 [label="gini = 0.0\nsamples = 122\nvalue = [122, 0, 0, 0, 0, 0, 0, 0, 0, 0]\nclass = 0", fillcolor="#e58139"] ;
24 -> 25 ;
26 [label="pixel_7_3 <= 9.0\ngini = 0.5\nsamples = 2\nvalue = [0, 0, 1, 0, 1, 0, 0, 0, 0, 0]\nclass = 2", fillcolor="#ffffff"] ;
24 -> 26 ;
27 [label="gini = 0.0\nsamples = 1\nvalue = [0, 0, 0, 0, 1, 0, 0, 0, 0, 0]\nclass = 4", fillcolor="#39e5c5"] ;
26 -> 27 ;
28 [label="gini = 0.0\nsamples = 1\nvalue = [0, 0, 1, 0, 0, 0, 0, 0, 0, 0]\nclass = 2", fillcolor="#7be539"] ;
26 -> 28 ;
29 [label="pixel_4_6 <= 1.0\ngini = 0.667\nsamples = 6\nvalue = [0, 0, 0, 0, 0, 1, 1, 0, 3, 1]\nclass = 8", fillcolor="#f5b0e6"] ;
23 -> 29 ;
30 [label="gini = 0.0\nsamples = 3\nvalue = [0, 0, 0, 0, 0, 0, 0, 0, 3, 0]\nclass = 8", fillcolor="#e539c0"] ;
29 -> 30 ;
31 [label="pixel_2_4 <= 7.0\ngini = 0.667\nsamples = 3\nvalue = [0, 0, 0, 0, 0, 1, 1, 0, 0, 1]\nclass = 5", fillcolor="#ffffff"] ;
29 -> 31 ;
32 [label="gini = 0.0\nsamples = 1\nvalue = [0, 0, 0, 0, 0, 0, 0, 0, 0, 1]\nclass = 9", fillcolor="#e53958"] ;
31 -> 32 ;
33 [label="pixel_4_3 <= 5.0\ngini = 0.5\nsamples = 2\nvalue = [0, 0, 0, 0, 0, 1, 1, 0, 0, 0]\nclass = 5", fillcolor="#ffffff"] ;
31 -> 33 ;
34 [label="gini = 0.0\nsamples = 1\nvalue = [0, 0, 0, 0, 0, 0, 1, 0, 0, 0]\nclass = 6", fillcolor="#3c39e5"] ;
33 -> 34 ;
35 [label="gini = 0.0\nsamples = 1\nvalue = [0, 0, 0, 0, 0, 1, 0, 0, 0, 0]\nclass = 5", fillcolor="#399de5"] ;
33 -> 35 ;
36 [label="pixel_2_5 <= 0.5\ngini = 0.887\nsamples = 1062\nvalue = [2, 132, 127, 128, 115, 100, 124, 124, 128, 82]\nclass = 1", fillcolor="#fffffe"] ;
0 -> 36 [labeldistance=2.5, labelangle=-45, headlabel="False"] ;
37 [label="pixel_5_2 <= 8.5\ngini = 0.74\nsamples = 312\nvalue = [0, 28, 33, 11, 20, 91, 121, 4, 3, 1]\nclass = 6", fillcolor="#e5e4fb"] ;
36 -> 37 ;
38 [label="pixel_0_5 <= 1.5\ngini = 0.656\nsamples = 167\nvalue = [0, 24, 27, 11, 6, 90, 2, 3, 3, 1]\nclass = 5", fillcolor="#a6d3f3"] ;
37 -> 38 ;
39 [label="pixel_1_2 <= 11.5\ngini = 0.731\nsamples = 73\nvalue = [0, 24, 27, 10, 4, 1, 2, 2, 2, 1]\nclass = 2", fillcolor="#f7fdf3"] ;
38 -> 39 ;
40 [label="pixel_4_5 <= 8.0\ngini = 0.459\nsamples = 32\nvalue = [0, 23, 0, 1, 4, 0, 2, 2, 0, 0]\nclass = 1", fillcolor="#ebed79"] ;
39 -> 40 ;
41 [label="pixel_0_3 <= 3.5\ngini = 0.08\nsamples = 24\nvalue = [0, 23, 0, 0, 0, 0, 1, 0, 0, 0]\nclass = 1", fillcolor="#e3e642"] ;
40 -> 41 ;
42 [label="gini = 0.0\nsamples = 1\nvalue = [0, 0, 0, 0, 0, 0, 1, 0, 0, 0]\nclass = 6", fillcolor="#3c39e5"] ;
41 -> 42 ;
43 [label="gini = 0.0\nsamples = 23\nvalue = [0, 23, 0, 0, 0, 0, 0, 0, 0, 0]\nclass = 1", fillcolor="#e2e539"] ;
41 -> 43 ;
44 [label="pixel_6_4 <= 8.0\ngini = 0.656\nsamples = 8\nvalue = [0, 0, 0, 1, 4, 0, 1, 2, 0, 0]\nclass = 4", fillcolor="#bdf6ec"] ;
40 -> 44 ;
45 [label="pixel_3_4 <= 10.5\ngini = 0.625\nsamples = 4\nvalue = [0, 0, 0, 1, 0, 0, 1, 2, 0, 0]\nclass = 7", fillcolor="#e0bdf6"] ;
44 -> 45 ;
46 [label="pixel_1_4 <= 14.0\ngini = 0.5\nsamples = 2\nvalue = [0, 0, 0, 1, 0, 0, 1, 0, 0, 0]\nclass = 3", fillcolor="#ffffff"] ;
45 -> 46 ;
47 [label="gini = 0.0\nsamples = 1\nvalue = [0, 0, 0, 0, 0, 0, 1, 0, 0, 0]\nclass = 6", fillcolor="#3c39e5"] ;
46 -> 47 ;
48 [label="gini = 0.0\nsamples = 1\nvalue = [0, 0, 0, 1, 0, 0, 0, 0, 0, 0]\nclass = 3", fillcolor="#39e55e"] ;
46 -> 48 ;
49 [label="gini = 0.0\nsamples = 2\nvalue = [0, 0, 0, 0, 0, 0, 0, 2, 0, 0]\nclass = 7", fillcolor="#a339e5"] ;
45 -> 49 ;
50 [label="gini = 0.0\nsamples = 4\nvalue = [0, 0, 0, 0, 4, 0, 0, 0, 0, 0]\nclass = 4", fillcolor="#39e5c5"] ;
44 -> 50 ;
51 [label="pixel_4_5 <= 4.0\ngini = 0.514\nsamples = 41\nvalue = [0, 1, 27, 9, 0, 1, 0, 0, 2, 1]\nclass = 2", fillcolor="#b5f090"] ;
39 -> 51 ;
52 [label="pixel_0_4 <= 8.5\ngini = 0.131\nsamples = 29\nvalue = [0, 1, 27, 0, 0, 0, 0, 0, 1, 0]\nclass = 2", fillcolor="#84e747"] ;
51 -> 52 ;
53 [label="gini = 0.0\nsamples = 27\nvalue = [0, 0, 27, 0, 0, 0, 0, 0, 0, 0]\nclass = 2", fillcolor="#7be539"] ;
52 -> 53 ;
54 [label="pixel_3_4 <= 7.0\ngini = 0.5\nsamples = 2\nvalue = [0, 1, 0, 0, 0, 0, 0, 0, 1, 0]\nclass = 1", fillcolor="#ffffff"] ;
52 -> 54 ;
55 [label="gini = 0.0\nsamples = 1\nvalue = [0, 1, 0, 0, 0, 0, 0, 0, 0, 0]\nclass = 1", fillcolor="#e2e539"] ;
54 -> 55 ;
56 [label="gini = 0.0\nsamples = 1\nvalue = [0, 0, 0, 0, 0, 0, 0, 0, 1, 0]\nclass = 8", fillcolor="#e539c0"] ;
54 -> 56 ;
57 [label="pixel_6_6 <= 9.5\ngini = 0.417\nsamples = 12\nvalue = [0, 0, 0, 9, 0, 1, 0, 0, 1, 1]\nclass = 3", fillcolor="#6fec8a"] ;
51 -> 57 ;
58 [label="gini = 0.0\nsamples = 9\nvalue = [0, 0, 0, 9, 0, 0, 0, 0, 0, 0]\nclass = 3", fillcolor="#39e55e"] ;
57 -> 58 ;
59 [label="pixel_5_4 <= 1.5\ngini = 0.667\nsamples = 3\nvalue = [0, 0, 0, 0, 0, 1, 0, 0, 1, 1]\nclass = 5", fillcolor="#ffffff"] ;
57 -> 59 ;
60 [label="pixel_1_1 <= 9.5\ngini = 0.5\nsamples = 2\nvalue = [0, 0, 0, 0, 0, 1, 0, 0, 0, 1]\nclass = 5", fillcolor="#ffffff"] ;
59 -> 60 ;
61 [label="gini = 0.0\nsamples = 1\nvalue = [0, 0, 0, 0, 0, 0, 0, 0, 0, 1]\nclass = 9", fillcolor="#e53958"] ;
60 -> 61 ;
62 [label="gini = 0.0\nsamples = 1\nvalue = [0, 0, 0, 0, 0, 1, 0, 0, 0, 0]\nclass = 5", fillcolor="#399de5"] ;
60 -> 62 ;
63 [label="gini = 0.0\nsamples = 1\nvalue = [0, 0, 0, 0, 0, 0, 0, 0, 1, 0]\nclass = 8", fillcolor="#e539c0"] ;
59 -> 63 ;
64 [label="pixel_2_2 <= 4.5\ngini = 0.103\nsamples = 94\nvalue = [0, 0, 0, 1, 2, 89, 0, 1, 1, 0]\nclass = 5", fillcolor="#44a2e6"] ;
38 -> 64 ;
65 [label="pixel_6_6 <= 3.5\ngini = 0.667\nsamples = 3\nvalue = [0, 0, 0, 1, 1, 0, 0, 1, 0, 0]\nclass = 3", fillcolor="#ffffff"] ;
64 -> 65 ;
66 [label="pixel_4_1 <= 5.5\ngini = 0.5\nsamples = 2\nvalue = [0, 0, 0, 0, 1, 0, 0, 1, 0, 0]\nclass = 4", fillcolor="#ffffff"] ;
65 -> 66 ;
67 [label="gini = 0.0\nsamples = 1\nvalue = [0, 0, 0, 0, 0, 0, 0, 1, 0, 0]\nclass = 7", fillcolor="#a339e5"] ;
66 -> 67 ;
68 [label="gini = 0.0\nsamples = 1\nvalue = [0, 0, 0, 0, 1, 0, 0, 0, 0, 0]\nclass = 4", fillcolor="#39e5c5"] ;
66 -> 68 ;
69 [label="gini = 0.0\nsamples = 1\nvalue = [0, 0, 0, 1, 0, 0, 0, 0, 0, 0]\nclass = 3", fillcolor="#39e55e"] ;
65 -> 69 ;
70 [label="pixel_3_0 <= 0.5\ngini = 0.043\nsamples = 91\nvalue = [0, 0, 0, 0, 1, 89, 0, 0, 1, 0]\nclass = 5", fillcolor="#3d9fe6"] ;
64 -> 70 ;
71 [label="pixel_2_4 <= 13.0\ngini = 0.022\nsamples = 90\nvalue = [0, 0, 0, 0, 0, 89, 0, 0, 1, 0]\nclass = 5", fillcolor="#3b9ee5"] ;
70 -> 71 ;
72 [label="gini = 0.0\nsamples = 89\nvalue = [0, 0, 0, 0, 0, 89, 0, 0, 0, 0]\nclass = 5", fillcolor="#399de5"] ;
71 -> 72 ;
73 [label="gini = 0.0\nsamples = 1\nvalue = [0, 0, 0, 0, 0, 0, 0, 0, 1, 0]\nclass = 8", fillcolor="#e539c0"] ;
71 -> 73 ;
74 [label="gini = 0.0\nsamples = 1\nvalue = [0, 0, 0, 0, 1, 0, 0, 0, 0, 0]\nclass = 4", fillcolor="#39e5c5"] ;
70 -> 74 ;
75 [label="pixel_6_6 <= 1.5\ngini = 0.315\nsamples = 145\nvalue = [0, 4, 6, 0, 14, 1, 119, 1, 0, 0]\nclass = 6", fillcolor="#6360ea"] ;
37 -> 75 ;
76 [label="pixel_1_2 <= 4.5\ngini = 0.676\nsamples = 28\nvalue = [0, 4, 2, 0, 14, 1, 6, 1, 0, 0]\nclass = 4", fillcolor="#b7f6ea"] ;
75 -> 76 ;
77 [label="pixel_4_2 <= 11.5\ngini = 0.124\nsamples = 15\nvalue = [0, 0, 0, 0, 14, 0, 1, 0, 0, 0]\nclass = 4", fillcolor="#47e7c9"] ;
76 -> 77 ;
78 [label="gini = 0.0\nsamples = 1\nvalue = [0, 0, 0, 0, 0, 0, 1, 0, 0, 0]\nclass = 6", fillcolor="#3c39e5"] ;
77 -> 78 ;
79 [label="gini = 0.0\nsamples = 14\nvalue = [0, 0, 0, 0, 14, 0, 0, 0, 0, 0]\nclass = 4", fillcolor="#39e5c5"] ;
77 -> 79 ;
80 [label="pixel_3_4 <= 9.5\ngini = 0.722\nsamples = 13\nvalue = [0, 4, 2, 0, 0, 1, 5, 1, 0, 0]\nclass = 6", fillcolor="#e9e9fc"] ;
76 -> 80 ;
81 [label="gini = 0.0\nsamples = 5\nvalue = [0, 0, 0, 0, 0, 0, 5, 0, 0, 0]\nclass = 6", fillcolor="#3c39e5"] ;
80 -> 81 ;
82 [label="pixel_2_1 <= 1.0\ngini = 0.656\nsamples = 8\nvalue = [0, 4, 2, 0, 0, 1, 0, 1, 0, 0]\nclass = 1", fillcolor="#f5f6bd"] ;
80 -> 82 ;
83 [label="gini = 0.0\nsamples = 4\nvalue = [0, 4, 0, 0, 0, 0, 0, 0, 0, 0]\nclass = 1", fillcolor="#e2e539"] ;
82 -> 83 ;
84 [label="pixel_5_5 <= 2.0\ngini = 0.625\nsamples = 4\nvalue = [0, 0, 2, 0, 0, 1, 0, 1, 0, 0]\nclass = 2", fillcolor="#d3f6bd"] ;
82 -> 84 ;
85 [label="gini = 0.0\nsamples = 2\nvalue = [0, 0, 2, 0, 0, 0, 0, 0, 0, 0]\nclass = 2", fillcolor="#7be539"] ;
84 -> 85 ;
86 [label="pixel_4_1 <= 4.0\ngini = 0.5\nsamples = 2\nvalue = [0, 0, 0, 0, 0, 1, 0, 1, 0, 0]\nclass = 5", fillcolor="#ffffff"] ;
84 -> 86 ;
87 [label="gini = 0.0\nsamples = 1\nvalue = [0, 0, 0, 0, 0, 0, 0, 1, 0, 0]\nclass = 7", fillcolor="#a339e5"] ;
86 -> 87 ;
88 [label="gini = 0.0\nsamples = 1\nvalue = [0, 0, 0, 0, 0, 1, 0, 0, 0, 0]\nclass = 5", fillcolor="#399de5"] ;
86 -> 88 ;
89 [label="pixel_0_2 <= 11.0\ngini = 0.066\nsamples = 117\nvalue = [0, 0, 4, 0, 0, 0, 113, 0, 0, 0]\nclass = 6", fillcolor="#4340e6"] ;
75 -> 89 ;
90 [label="gini = 0.0\nsamples = 113\nvalue = [0, 0, 0, 0, 0, 0, 113, 0, 0, 0]\nclass = 6", fillcolor="#3c39e5"] ;
89 -> 90 ;
91 [label="gini = 0.0\nsamples = 4\nvalue = [0, 0, 4, 0, 0, 0, 0, 0, 0, 0]\nclass = 2", fillcolor="#7be539"] ;
89 -> 91 ;
92 [label="pixel_7_4 <= 2.5\ngini = 0.859\nsamples = 750\nvalue = [2, 104, 94, 117, 95, 9, 3, 120, 125, 81]\nclass = 8", fillcolor="#fffdfe"] ;
36 -> 92 ;
93 [label="pixel_3_2 <= 14.5\ngini = 0.218\nsamples = 93\nvalue = [0, 0, 1, 2, 5, 0, 0, 82, 0, 3]\nclass = 7", fillcolor="#ae52e8"] ;
92 -> 93 ;
94 [label="pixel_4_5 <= 0.5\ngini = 0.093\nsamples = 83\nvalue = [0, 0, 1, 2, 1, 0, 0, 79, 0, 0]\nclass = 7", fillcolor="#a843e6"] ;
93 -> 94 ;
95 [label="pixel_5_4 <= 7.0\ngini = 0.611\nsamples = 6\nvalue = [0, 0, 0, 2, 1, 0, 0, 3, 0, 0]\nclass = 7", fillcolor="#e8cef8"] ;
94 -> 95 ;
96 [label="gini = 0.0\nsamples = 3\nvalue = [0, 0, 0, 0, 0, 0, 0, 3, 0, 0]\nclass = 7", fillcolor="#a339e5"] ;
95 -> 96 ;
97 [label="pixel_7_2 <= 13.0\ngini = 0.444\nsamples = 3\nvalue = [0, 0, 0, 2, 1, 0, 0, 0, 0, 0]\nclass = 3", fillcolor="#9cf2ae"] ;
95 -> 97 ;
98 [label="gini = 0.0\nsamples = 1\nvalue = [0, 0, 0, 0, 1, 0, 0, 0, 0, 0]\nclass = 4", fillcolor="#39e5c5"] ;
97 -> 98 ;
99 [label="gini = 0.0\nsamples = 2\nvalue = [0, 0, 0, 2, 0, 0, 0, 0, 0, 0]\nclass = 3", fillcolor="#39e55e"] ;
97 -> 99 ;
100 [label="pixel_6_7 <= 2.0\ngini = 0.026\nsamples = 77\nvalue = [0, 0, 1, 0, 0, 0, 0, 76, 0, 0]\nclass = 7", fillcolor="#a43ce5"] ;
94 -> 100 ;
101 [label="gini = 0.0\nsamples = 76\nvalue = [0, 0, 0, 0, 0, 0, 0, 76, 0, 0]\nclass = 7", fillcolor="#a339e5"] ;
100 -> 101 ;
102 [label="gini = 0.0\nsamples = 1\nvalue = [0, 0, 1, 0, 0, 0, 0, 0, 0, 0]\nclass = 2", fillcolor="#7be539"] ;
100 -> 102 ;
103 [label="pixel_4_3 <= 13.0\ngini = 0.66\nsamples = 10\nvalue = [0, 0, 0, 0, 4, 0, 0, 3, 0, 3]\nclass = 4", fillcolor="#e3fbf7"] ;
93 -> 103 ;
104 [label="pixel_2_1 <= 1.5\ngini = 0.5\nsamples = 6\nvalue = [0, 0, 0, 0, 0, 0, 0, 3, 0, 3]\nclass = 7", fillcolor="#ffffff"] ;
103 -> 104 ;
105 [label="gini = 0.0\nsamples = 3\nvalue = [0, 0, 0, 0, 0, 0, 0, 3, 0, 0]\nclass = 7", fillcolor="#a339e5"] ;
104 -> 105 ;
106 [label="gini = 0.0\nsamples = 3\nvalue = [0, 0, 0, 0, 0, 0, 0, 0, 0, 3]\nclass = 9", fillcolor="#e53958"] ;
104 -> 106 ;
107 [label="gini = 0.0\nsamples = 4\nvalue = [0, 0, 0, 0, 4, 0, 0, 0, 0, 0]\nclass = 4", fillcolor="#39e5c5"] ;
103 -> 107 ;
108 [label="pixel_4_1 <= 4.5\ngini = 0.852\nsamples = 657\nvalue = [2, 104, 93, 115, 90, 9, 3, 38, 125, 78]\nclass = 8", fillcolor="#fffbfe"] ;
92 -> 108 ;
109 [label="pixel_5_3 <= 2.5\ngini = 0.828\nsamples = 556\nvalue = [2, 95, 93, 114, 9, 8, 1, 33, 123, 78]\nclass = 8", fillcolor="#fefbfe"] ;
108 -> 109 ;
110 [label="pixel_3_2 <= 3.5\ngini = 0.691\nsamples = 231\nvalue = [0, 21, 6, 102, 1, 6, 0, 3, 20, 72]\nclass = 3", fillcolor="#dafae1"] ;
109 -> 110 ;
111 [label="pixel_7_7 <= 1.5\ngini = 0.246\nsamples = 104\nvalue = [0, 2, 5, 90, 0, 0, 0, 0, 3, 4]\nclass = 3", fillcolor="#55e975"] ;
110 -> 111 ;
112 [label="pixel_2_3 <= 8.5\ngini = 0.154\nsamples = 98\nvalue = [0, 1, 0, 90, 0, 0, 0, 0, 3, 4]\nclass = 3", fillcolor="#4ae76c"] ;
111 -> 112 ;
113 [label="pixel_0_4 <= 7.5\ngini = 0.022\nsamples = 89\nvalue = [0, 0, 0, 88, 0, 0, 0, 0, 0, 1]\nclass = 3", fillcolor="#3be560"] ;
112 -> 113 ;
114 [label="pixel_3_2 <= 1.0\ngini = 0.444\nsamples = 3\nvalue = [0, 0, 0, 2, 0, 0, 0, 0, 0, 1]\nclass = 3", fillcolor="#9cf2ae"] ;
113 -> 114 ;
115 [label="gini = 0.0\nsamples = 2\nvalue = [0, 0, 0, 2, 0, 0, 0, 0, 0, 0]\nclass = 3", fillcolor="#39e55e"] ;
114 -> 115 ;
116 [label="gini = 0.0\nsamples = 1\nvalue = [0, 0, 0, 0, 0, 0, 0, 0, 0, 1]\nclass = 9", fillcolor="#e53958"] ;
114 -> 116 ;
117 [label="gini = 0.0\nsamples = 86\nvalue = [0, 0, 0, 86, 0, 0, 0, 0, 0, 0]\nclass = 3", fillcolor="#39e55e"] ;
113 -> 117 ;
118 [label="pixel_5_2 <= 8.5\ngini = 0.716\nsamples = 9\nvalue = [0, 1, 0, 2, 0, 0, 0, 0, 3, 3]\nclass = 8", fillcolor="#ffffff"] ;
112 -> 118 ;
119 [label="pixel_4_4 <= 6.0\ngini = 0.611\nsamples = 6\nvalue = [0, 1, 0, 2, 0, 0, 0, 0, 0, 3]\nclass = 9", fillcolor="#f8ced5"] ;
118 -> 119 ;
120 [label="gini = 0.0\nsamples = 3\nvalue = [0, 0, 0, 0, 0, 0, 0, 0, 0, 3]\nclass = 9", fillcolor="#e53958"] ;
119 -> 120 ;
121 [label="gini = 0.444\nsamples = 3\nvalue = [0, 1, 0, 2, 0, 0, 0, 0, 0, 0]\nclass = 3", fillcolor="#9cf2ae"] ;
119 -> 121 ;
122 [label="gini = 0.0\nsamples = 3\nvalue = [0, 0, 0, 0, 0, 0, 0, 0, 3, 0]\nclass = 8", fillcolor="#e539c0"] ;
118 -> 122 ;
123 [label="pixel_3_5 <= 11.0\ngini = 0.278\nsamples = 6\nvalue = [0, 1, 5, 0, 0, 0, 0, 0, 0, 0]\nclass = 2", fillcolor="#95ea61"] ;
111 -> 123 ;
124 [label="gini = 0.0\nsamples = 1\nvalue = [0, 1, 0, 0, 0, 0, 0, 0, 0, 0]\nclass = 1", fillcolor="#e2e539"] ;
123 -> 124 ;
125 [label="gini = 0.0\nsamples = 5\nvalue = [0, 0, 5, 0, 0, 0, 0, 0, 0, 0]\nclass = 2", fillcolor="#7be539"] ;
123 -> 125 ;
126 [label="pixel_5_2 <= 9.0\ngini = 0.661\nsamples = 127\nvalue = [0, 19, 1, 12, 1, 6, 0, 3, 17, 68]\nclass = 9", fillcolor="#f3a5b3"] ;
110 -> 126 ;
127 [label="pixel_1_4 <= 14.5\ngini = 0.573\nsamples = 110\nvalue = [0, 19, 1, 12, 1, 5, 0, 3, 1, 68]\nclass = 9", fillcolor="#f194a5"] ;
126 -> 127 ;
128 [label="pixel_2_5 <= 7.5\ngini = 0.405\nsamples = 80\nvalue = [0, 2, 1, 8, 1, 3, 0, 3, 1, 61]\nclass = 9", fillcolor="#ec6d84"] ;
127 -> 128 ;
129 [label="pixel_7_4 <= 9.0\ngini = 0.72\nsamples = 10\nvalue = [0, 0, 0, 3, 1, 3, 0, 3, 0, 0]\nclass = 3", fillcolor="#ffffff"] ;
128 -> 129 ;
130 [label="gini = 0.0\nsamples = 3\nvalue = [0, 0, 0, 0, 0, 0, 0, 3, 0, 0]\nclass = 7", fillcolor="#a339e5"] ;
129 -> 130 ;
131 [label="gini = 0.612\nsamples = 7\nvalue = [0, 0, 0, 3, 1, 3, 0, 0, 0, 0]\nclass = 3", fillcolor="#ffffff"] ;
129 -> 131 ;
132 [label="pixel_3_3 <= 3.5\ngini = 0.234\nsamples = 70\nvalue = [0, 2, 1, 5, 0, 0, 0, 0, 1, 61]\nclass = 9", fillcolor="#e9546f"] ;
128 -> 132 ;
133 [label="gini = 0.594\nsamples = 8\nvalue = [0, 0, 1, 4, 0, 0, 0, 0, 0, 3]\nclass = 3", fillcolor="#d7fadf"] ;
132 -> 133 ;
134 [label="gini = 0.123\nsamples = 62\nvalue = [0, 2, 0, 1, 0, 0, 0, 0, 1, 58]\nclass = 9", fillcolor="#e74663"] ;
132 -> 134 ;
135 [label="pixel_1_2 <= 9.0\ngini = 0.602\nsamples = 30\nvalue = [0, 17, 0, 4, 0, 2, 0, 0, 0, 7]\nclass = 1", fillcolor="#f2f4a9"] ;
127 -> 135 ;
136 [label="gini = 0.0\nsamples = 17\nvalue = [0, 17, 0, 0, 0, 0, 0, 0, 0, 0]\nclass = 1", fillcolor="#e2e539"] ;
135 -> 136 ;
137 [label="pixel_2_5 <= 10.5\ngini = 0.592\nsamples = 13\nvalue = [0, 0, 0, 4, 0, 2, 0, 0, 0, 7]\nclass = 9", fillcolor="#f6bdc7"] ;
135 -> 137 ;
138 [label="gini = 0.444\nsamples = 6\nvalue = [0, 0, 0, 4, 0, 2, 0, 0, 0, 0]\nclass = 3", fillcolor="#9cf2ae"] ;
137 -> 138 ;
139 [label="gini = 0.0\nsamples = 7\nvalue = [0, 0, 0, 0, 0, 0, 0, 0, 0, 7]\nclass = 9", fillcolor="#e53958"] ;
137 -> 139 ;
140 [label="pixel_4_5 <= 14.0\ngini = 0.111\nsamples = 17\nvalue = [0, 0, 0, 0, 0, 1, 0, 0, 16, 0]\nclass = 8", fillcolor="#e745c4"] ;
126 -> 140 ;
141 [label="gini = 0.0\nsamples = 16\nvalue = [0, 0, 0, 0, 0, 0, 0, 0, 16, 0]\nclass = 8", fillcolor="#e539c0"] ;
140 -> 141 ;
142 [label="gini = 0.0\nsamples = 1\nvalue = [0, 0, 0, 0, 0, 1, 0, 0, 0, 0]\nclass = 5", fillcolor="#399de5"] ;
140 -> 142 ;
143 [label="pixel_3_3 <= 9.5\ngini = 0.765\nsamples = 325\nvalue = [2, 74, 87, 12, 8, 2, 1, 30, 103, 6]\nclass = 8", fillcolor="#fdf2fb"] ;
109 -> 143 ;
144 [label="pixel_7_5 <= 0.5\ngini = 0.568\nsamples = 126\nvalue = [2, 0, 77, 2, 3, 0, 0, 28, 11, 3]\nclass = 2", fillcolor="#bdf29c"] ;
143 -> 144 ;
145 [label="pixel_6_2 <= 7.0\ngini = 0.281\nsamples = 32\nvalue = [1, 0, 0, 1, 1, 0, 0, 27, 2, 0]\nclass = 7", fillcolor="#b25ae9"] ;
144 -> 145 ;
146 [label="pixel_1_5 <= 4.0\ngini = 0.131\nsamples = 29\nvalue = [0, 0, 0, 1, 1, 0, 0, 27, 0, 0]\nclass = 7", fillcolor="#aa47e7"] ;
145 -> 146 ;
147 [label="gini = 0.0\nsamples = 1\nvalue = [0, 0, 0, 0, 1, 0, 0, 0, 0, 0]\nclass = 4", fillcolor="#39e5c5"] ;
146 -> 147 ;
148 [label="pixel_0_2 <= 7.5\ngini = 0.069\nsamples = 28\nvalue = [0, 0, 0, 1, 0, 0, 0, 27, 0, 0]\nclass = 7", fillcolor="#a640e6"] ;
146 -> 148 ;
149 [label="gini = 0.0\nsamples = 27\nvalue = [0, 0, 0, 0, 0, 0, 0, 27, 0, 0]\nclass = 7", fillcolor="#a339e5"] ;
148 -> 149 ;
150 [label="gini = 0.0\nsamples = 1\nvalue = [0, 0, 0, 1, 0, 0, 0, 0, 0, 0]\nclass = 3", fillcolor="#39e55e"] ;
148 -> 150 ;
151 [label="pixel_4_3 <= 13.5\ngini = 0.444\nsamples = 3\nvalue = [1, 0, 0, 0, 0, 0, 0, 0, 2, 0]\nclass = 8", fillcolor="#f29ce0"] ;
145 -> 151 ;
152 [label="gini = 0.0\nsamples = 1\nvalue = [1, 0, 0, 0, 0, 0, 0, 0, 0, 0]\nclass = 0", fillcolor="#e58139"] ;
151 -> 152 ;
153 [label="gini = 0.0\nsamples = 2\nvalue = [0, 0, 0, 0, 0, 0, 0, 0, 2, 0]\nclass = 8", fillcolor="#e539c0"] ;
151 -> 153 ;
154 [label="pixel_3_2 <= 7.0\ngini = 0.318\nsamples = 94\nvalue = [1, 0, 77, 1, 2, 0, 0, 1, 9, 3]\nclass = 2", fillcolor="#95ea61"] ;
144 -> 154 ;
155 [label="pixel_4_6 <= 1.5\ngini = 0.05\nsamples = 78\nvalue = [0, 0, 76, 1, 0, 0, 0, 1, 0, 0]\nclass = 2", fillcolor="#7ee63e"] ;
154 -> 155 ;
156 [label="gini = 0.0\nsamples = 76\nvalue = [0, 0, 76, 0, 0, 0, 0, 0, 0, 0]\nclass = 2", fillcolor="#7be539"] ;
155 -> 156 ;
157 [label="pixel_1_3 <= 13.0\ngini = 0.5\nsamples = 2\nvalue = [0, 0, 0, 1, 0, 0, 0, 1, 0, 0]\nclass = 3", fillcolor="#ffffff"] ;
155 -> 157 ;
158 [label="gini = 0.0\nsamples = 1\nvalue = [0, 0, 0, 1, 0, 0, 0, 0, 0, 0]\nclass = 3", fillcolor="#39e55e"] ;
157 -> 158 ;
159 [label="gini = 0.0\nsamples = 1\nvalue = [0, 0, 0, 0, 0, 0, 0, 1, 0, 0]\nclass = 7", fillcolor="#a339e5"] ;
157 -> 159 ;
160 [label="pixel_5_6 <= 8.5\ngini = 0.625\nsamples = 16\nvalue = [1, 0, 1, 0, 2, 0, 0, 0, 9, 3]\nclass = 8", fillcolor="#f3a4e2"] ;
154 -> 160 ;
161 [label="pixel_2_5 <= 6.5\ngini = 0.485\nsamples = 13\nvalue = [1, 0, 1, 0, 2, 0, 0, 0, 9, 0]\nclass = 8", fillcolor="#ee81d7"] ;
160 -> 161 ;
162 [label="gini = 0.444\nsamples = 3\nvalue = [0, 0, 1, 0, 2, 0, 0, 0, 0, 0]\nclass = 4", fillcolor="#9cf2e2"] ;
161 -> 162 ;
163 [label="gini = 0.18\nsamples = 10\nvalue = [1, 0, 0, 0, 0, 0, 0, 0, 9, 0]\nclass = 8", fillcolor="#e84fc7"] ;
161 -> 163 ;
164 [label="gini = 0.0\nsamples = 3\nvalue = [0, 0, 0, 0, 0, 0, 0, 0, 0, 3]\nclass = 9", fillcolor="#e53958"] ;
160 -> 164 ;
165 [label="pixel_2_4 <= 15.5\ngini = 0.642\nsamples = 199\nvalue = [0, 74, 10, 10, 5, 2, 1, 2, 92, 3]\nclass = 8", fillcolor="#fbe2f6"] ;
143 -> 165 ;
166 [label="pixel_2_2 <= 2.5\ngini = 0.377\nsamples = 107\nvalue = [0, 5, 2, 5, 3, 2, 1, 2, 84, 3]\nclass = 8", fillcolor="#eb66ce"] ;
165 -> 166 ;
167 [label="pixel_0_2 <= 4.5\ngini = 0.769\nsamples = 13\nvalue = [0, 2, 1, 5, 0, 0, 1, 2, 2, 0]\nclass = 3", fillcolor="#c9f8d3"] ;
166 -> 167 ;
168 [label="pixel_0_2 <= 1.0\ngini = 0.735\nsamples = 7\nvalue = [0, 2, 0, 0, 0, 0, 1, 2, 2, 0]\nclass = 1", fillcolor="#ffffff"] ;
167 -> 168 ;
169 [label="gini = 0.64\nsamples = 5\nvalue = [0, 2, 0, 0, 0, 0, 1, 0, 2, 0]\nclass = 1", fillcolor="#ffffff"] ;
168 -> 169 ;
170 [label="gini = 0.0\nsamples = 2\nvalue = [0, 0, 0, 0, 0, 0, 0, 2, 0, 0]\nclass = 7", fillcolor="#a339e5"] ;
168 -> 170 ;
171 [label="pixel_2_3 <= 10.0\ngini = 0.278\nsamples = 6\nvalue = [0, 0, 1, 5, 0, 0, 0, 0, 0, 0]\nclass = 3", fillcolor="#61ea7e"] ;
167 -> 171 ;
172 [label="gini = 0.0\nsamples = 5\nvalue = [0, 0, 0, 5, 0, 0, 0, 0, 0, 0]\nclass = 3", fillcolor="#39e55e"] ;
171 -> 172 ;
173 [label="gini = 0.0\nsamples = 1\nvalue = [0, 0, 1, 0, 0, 0, 0, 0, 0, 0]\nclass = 2", fillcolor="#7be539"] ;
171 -> 173 ;
174 [label="pixel_3_1 <= 3.5\ngini = 0.235\nsamples = 94\nvalue = [0, 3, 1, 0, 3, 2, 0, 0, 82, 3]\nclass = 8", fillcolor="#e853c8"] ;
166 -> 174 ;
175 [label="pixel_4_4 <= 1.5\ngini = 0.093\nsamples = 83\nvalue = [0, 2, 1, 0, 0, 0, 0, 0, 79, 1]\nclass = 8", fillcolor="#e643c3"] ;
174 -> 175 ;
176 [label="gini = 0.0\nsamples = 1\nvalue = [0, 0, 0, 0, 0, 0, 0, 0, 0, 1]\nclass = 9", fillcolor="#e53958"] ;
175 -> 176 ;
177 [label="gini = 0.071\nsamples = 82\nvalue = [0, 2, 1, 0, 0, 0, 0, 0, 79, 0]\nclass = 8", fillcolor="#e640c2"] ;
175 -> 177 ;
178 [label="pixel_1_5 <= 7.5\ngini = 0.777\nsamples = 11\nvalue = [0, 1, 0, 0, 3, 2, 0, 0, 3, 2]\nclass = 4", fillcolor="#ffffff"] ;
174 -> 178 ;
179 [label="gini = 0.0\nsamples = 3\nvalue = [0, 0, 0, 0, 3, 0, 0, 0, 0, 0]\nclass = 4", fillcolor="#39e5c5"] ;
178 -> 179 ;
180 [label="gini = 0.719\nsamples = 8\nvalue = [0, 1, 0, 0, 0, 2, 0, 0, 3, 2]\nclass = 8", fillcolor="#fbdef4"] ;
178 -> 180 ;
181 [label="pixel_1_2 <= 13.5\ngini = 0.419\nsamples = 92\nvalue = [0, 69, 8, 5, 2, 0, 0, 0, 8, 0]\nclass = 1", fillcolor="#eaec6f"] ;
165 -> 181 ;
182 [label="pixel_5_6 <= 1.5\ngini = 0.196\nsamples = 76\nvalue = [0, 68, 1, 2, 2, 0, 0, 0, 3, 0]\nclass = 1", fillcolor="#e5e84f"] ;
181 -> 182 ;
183 [label="pixel_7_1 <= 1.5\ngini = 0.082\nsamples = 71\nvalue = [0, 68, 1, 1, 0, 0, 0, 0, 1, 0]\nclass = 1", fillcolor="#e3e641"] ;
182 -> 183 ;
184 [label="gini = 0.056\nsamples = 70\nvalue = [0, 68, 0, 1, 0, 0, 0, 0, 1, 0]\nclass = 1", fillcolor="#e3e63f"] ;
183 -> 184 ;
185 [label="gini = 0.0\nsamples = 1\nvalue = [0, 0, 1, 0, 0, 0, 0, 0, 0, 0]\nclass = 2", fillcolor="#7be539"] ;
183 -> 185 ;
186 [label="pixel_6_1 <= 1.5\ngini = 0.64\nsamples = 5\nvalue = [0, 0, 0, 1, 2, 0, 0, 0, 2, 0]\nclass = 4", fillcolor="#ffffff"] ;
182 -> 186 ;
187 [label="gini = 0.444\nsamples = 3\nvalue = [0, 0, 0, 1, 0, 0, 0, 0, 2, 0]\nclass = 8", fillcolor="#f29ce0"] ;
186 -> 187 ;
188 [label="gini = 0.0\nsamples = 2\nvalue = [0, 0, 0, 0, 2, 0, 0, 0, 0, 0]\nclass = 4", fillcolor="#39e5c5"] ;
186 -> 188 ;
189 [label="pixel_2_5 <= 5.5\ngini = 0.672\nsamples = 16\nvalue = [0, 1, 7, 3, 0, 0, 0, 0, 5, 0]\nclass = 2", fillcolor="#e7fadb"] ;
181 -> 189 ;
190 [label="gini = 0.0\nsamples = 7\nvalue = [0, 0, 7, 0, 0, 0, 0, 0, 0, 0]\nclass = 2", fillcolor="#7be539"] ;
189 -> 190 ;
191 [label="pixel_6_2 <= 12.5\ngini = 0.568\nsamples = 9\nvalue = [0, 1, 0, 3, 0, 0, 0, 0, 5, 0]\nclass = 8", fillcolor="#f6bdea"] ;
189 -> 191 ;
192 [label="gini = 0.375\nsamples = 4\nvalue = [0, 1, 0, 3, 0, 0, 0, 0, 0, 0]\nclass = 3", fillcolor="#7bee94"] ;
191 -> 192 ;
193 [label="gini = 0.0\nsamples = 5\nvalue = [0, 0, 0, 0, 0, 0, 0, 0, 5, 0]\nclass = 8", fillcolor="#e539c0"] ;
191 -> 193 ;
194 [label="pixel_1_5 <= 13.5\ngini = 0.345\nsamples = 101\nvalue = [0, 9, 0, 1, 81, 1, 2, 5, 2, 0]\nclass = 4", fillcolor="#64ebd2"] ;
108 -> 194 ;
195 [label="pixel_4_5 <= 6.5\ngini = 0.092\nsamples = 84\nvalue = [0, 3, 0, 0, 80, 1, 0, 0, 0, 0]\nclass = 4", fillcolor="#43e6c8"] ;
194 -> 195 ;
196 [label="pixel_4_3 <= 2.5\ngini = 0.375\nsamples = 4\nvalue = [0, 3, 0, 0, 1, 0, 0, 0, 0, 0]\nclass = 1", fillcolor="#ecee7b"] ;
195 -> 196 ;
197 [label="gini = 0.0\nsamples = 1\nvalue = [0, 0, 0, 0, 1, 0, 0, 0, 0, 0]\nclass = 4", fillcolor="#39e5c5"] ;
196 -> 197 ;
198 [label="gini = 0.0\nsamples = 3\nvalue = [0, 3, 0, 0, 0, 0, 0, 0, 0, 0]\nclass = 1", fillcolor="#e2e539"] ;
196 -> 198 ;
199 [label="pixel_0_5 <= 13.5\ngini = 0.025\nsamples = 80\nvalue = [0, 0, 0, 0, 79, 1, 0, 0, 0, 0]\nclass = 4", fillcolor="#3ce5c6"] ;
195 -> 199 ;
200 [label="gini = 0.0\nsamples = 79\nvalue = [0, 0, 0, 0, 79, 0, 0, 0, 0, 0]\nclass = 4", fillcolor="#39e5c5"] ;
199 -> 200 ;
201 [label="gini = 0.0\nsamples = 1\nvalue = [0, 0, 0, 0, 0, 1, 0, 0, 0, 0]\nclass = 5", fillcolor="#399de5"] ;
199 -> 201 ;
202 [label="pixel_7_3 <= 5.5\ngini = 0.754\nsamples = 17\nvalue = [0, 6, 0, 1, 1, 0, 2, 5, 2, 0]\nclass = 1", fillcolor="#fdfdee"] ;
194 -> 202 ;
203 [label="gini = 0.0\nsamples = 6\nvalue = [0, 6, 0, 0, 0, 0, 0, 0, 0, 0]\nclass = 1", fillcolor="#e2e539"] ;
202 -> 203 ;
204 [label="pixel_2_3 <= 2.0\ngini = 0.711\nsamples = 11\nvalue = [0, 0, 0, 1, 1, 0, 2, 5, 2, 0]\nclass = 7", fillcolor="#e0bdf6"] ;
202 -> 204 ;
205 [label="gini = 0.0\nsamples = 5\nvalue = [0, 0, 0, 0, 0, 0, 0, 5, 0, 0]\nclass = 7", fillcolor="#a339e5"] ;
204 -> 205 ;
206 [label="pixel_1_4 <= 9.5\ngini = 0.722\nsamples = 6\nvalue = [0, 0, 0, 1, 1, 0, 2, 0, 2, 0]\nclass = 6", fillcolor="#ffffff"] ;
204 -> 206 ;
207 [label="pixel_4_5 <= 10.5\ngini = 0.625\nsamples = 4\nvalue = [0, 0, 0, 1, 1, 0, 0, 0, 2, 0]\nclass = 8", fillcolor="#f6bdea"] ;
206 -> 207 ;
208 [label="gini = 0.0\nsamples = 2\nvalue = [0, 0, 0, 0, 0, 0, 0, 0, 2, 0]\nclass = 8", fillcolor="#e539c0"] ;
207 -> 208 ;
209 [label="pixel_6_2 <= 7.5\ngini = 0.5\nsamples = 2\nvalue = [0, 0, 0, 1, 1, 0, 0, 0, 0, 0]\nclass = 3", fillcolor="#ffffff"] ;
207 -> 209 ;
210 [label="gini = 0.0\nsamples = 1\nvalue = [0, 0, 0, 0, 1, 0, 0, 0, 0, 0]\nclass = 4", fillcolor="#39e5c5"] ;
209 -> 210 ;
211 [label="gini = 0.0\nsamples = 1\nvalue = [0, 0, 0, 1, 0, 0, 0, 0, 0, 0]\nclass = 3", fillcolor="#39e55e"] ;
209 -> 211 ;
212 [label="gini = 0.0\nsamples = 2\nvalue = [0, 0, 0, 0, 0, 0, 2, 0, 0, 0]\nclass = 6", fillcolor="#3c39e5"] ;
206 -> 212 ;
}